SNNS network definition file V1.4-3D
generated at Sun Nov 28 14:03:21 2004

network name : triangle_square_RBF_trained
source files :
no. of units : 23
no. of connections : 60
no. of unit types : 0
no. of site types : 0


learning function : RadialBasisLearning
update function   : Topological_Order


unit default section :

act      | bias     | st | subnet | layer | act func     | out func
---------|----------|----|--------|-------|--------------|-------------
 0.00000 |  0.00000 | h  |      0 |     1 | Act_Logistic | Out_Identity 
---------|----------|----|--------|-------|--------------|-------------


unit definition section :

no. | typeName | unitName | act      | bias     | st | position | act func         | out func | sites
----|----------|----------|----------|----------|----|----------|------------------|----------|-------
  1 |          |          | -0.22142 |  0.00000 | i  |  2, 2, 0 |||
  2 |          |          | -0.34522 |  0.00000 | i  |  2, 3, 0 |||
  3 |          |          |  0.95455 |  0.10000 | h  |  5, 2, 0 | Act_RBF_Gaussian |          | 
  4 |          |          |  0.96004 |  0.10000 | h  |  5, 3, 0 | Act_RBF_Gaussian |          | 
  5 |          |          |  0.89259 |  0.10000 | h  |  5, 4, 0 | Act_RBF_Gaussian |          | 
  6 |          |          |  0.98949 |  0.10000 | h  |  5, 5, 0 | Act_RBF_Gaussian |          | 
  7 |          |          |  0.96661 |  0.10000 | h  |  5, 6, 0 | Act_RBF_Gaussian |          | 
  8 |          |          |  0.94953 |  0.10000 | h  |  5, 7, 0 | Act_RBF_Gaussian |          | 
  9 |          |          |  0.94001 |  0.10000 | h  |  5, 8, 0 | Act_RBF_Gaussian |          | 
 10 |          |          |  0.93790 |  0.10000 | h  |  5, 9, 0 | Act_RBF_Gaussian |          | 
 11 |          |          |  0.96500 |  0.10000 | h  |  5,10, 0 | Act_RBF_Gaussian |          | 
 12 |          |          |  0.70981 |  0.10000 | h  |  5,11, 0 | Act_RBF_Gaussian |          | 
 13 |          |          |  0.97629 |  0.10000 | h  |  5,12, 0 | Act_RBF_Gaussian |          | 
 14 |          |          |  0.86562 |  0.10000 | h  |  5,13, 0 | Act_RBF_Gaussian |          | 
 15 |          |          |  0.90341 |  0.10000 | h  |  5,14, 0 | Act_RBF_Gaussian |          | 
 16 |          |          |  0.98248 |  0.10000 | h  |  5,15, 0 | Act_RBF_Gaussian |          | 
 17 |          |          |  0.92986 |  0.10000 | h  |  5,16, 0 | Act_RBF_Gaussian |          | 
 18 |          |          |  0.90280 |  0.10000 | h  |  5,17, 0 | Act_RBF_Gaussian |          | 
 19 |          |          |  0.99372 |  0.10000 | h  |  5,18, 0 | Act_RBF_Gaussian |          | 
 20 |          |          |  0.89133 |  0.10000 | h  |  5,19, 0 | Act_RBF_Gaussian |          | 
 21 |          |          |  0.91600 |  0.10000 | h  |  5,20, 0 | Act_RBF_Gaussian |          | 
 22 |          |          |  0.80778 |  0.10000 | h  |  5,21, 0 | Act_RBF_Gaussian |          | 
 23 |          |          |  0.00020 | -153.61958 | o  |  8, 2, 0 |||
----|----------|----------|----------|----------|----|----------|------------------|----------|-------


connection definition section :

target | site | source:weight
-------|------|---------------------------------------------------------------------------------------------------------------------
     3 |      |  1:-0.18451,  2: 0.32651
     4 |      |  1: 0.04940,  2: 0.95160
     5 |      |  1:-0.32742,  2:-0.21598
     6 |      |  1: 0.65893,  2: 0.20867
     7 |      |  1:-0.06844,  2: 0.28294
     8 |      |  1: 0.11267,  2:-0.13883
     9 |      |  1: 0.00975,  2:-0.15046
    10 |      |  1: 0.12556,  2:-0.23798
    11 |      |  1: 0.18838,  2:-0.04076
    12 |      |  1:-1.33564,  2: 0.11798
    13 |      |  1: 0.43240,  2:-0.00750
    14 |      |  1:-0.28370,  2:-0.44731
    15 |      |  1:-0.12275,  2:-0.32778
    16 |      |  1: 0.51118,  2: 0.06071
    17 |      |  1: 0.19874,  2:-0.32508
    18 |      |  1:-0.03551,  2:-0.38997
    19 |      |  1: 0.28825,  2: 0.31798
    20 |      |  1: 0.20255,  2:-0.55608
    21 |      |  1: 0.45386,  2:-0.45632
    22 |      |  1:-0.05186,  2:-0.88082
    23 |      |  3:19.61735,  4:665.56488,  5: 5.21208,  6:-270.21344,  7:12.83099,  8:170.32208,  9:-86.44704, 10:298.51453, 11:-196.15167,
                12:-397.61264, 13:-330.69650, 14:-17.56224, 15:60.12958, 16:-321.50949, 17:62.06128, 18:195.49936, 19:-137.13916, 20:116.05465,
                21:24.35518, 22:278.20331
-------|------|---------------------------------------------------------------------------------------------------------------------
